0.00136178886922401,-0.00101208940477599,-0.000578192742375992,-0.000730454395375992,-0.000150471051975992,-0.000973746796675992,8.5745825724008e-05,-0.000469876404675992,-0.000439291725275992,-7.18829846759917e-05,-7.2386025475992e-05,-4.22664186759921e-05,-6.58272320759918e-05,-7.09605442759915e-05,9.72999482559573e-06,-6.03128812759916e-05
0.00129881140968888,0.000601002197469316,0.00033122559582318,0.000252383996781224,0.000211898242525407,0.000145037962100745,7.99361078028731e-05,4.4824170718107e-05,2.93522485560042e-05,2.08123387860136e-05,1.83680868751201e-05,9.71940722696954e-06,4.74985501687536e-06,3.76065640974296e-06,2.80931499226873e-06,2.20331307112022e-06
0.00130066587861322,0.000602026522432575,0.000331559902670516,0.000252917560404948,0.000211920884062889,0.000145986144924782,7.99434601495022e-05,4.50449545537782e-05,2.95452257759001e-05,2.08175059494996e-05,1.83733266118044e-05,9.72119367711724e-06,4.75418824135815e-06,3.7656918085869e-06,2.80940966506803e-06,2.20695071476803e-06
0.259486709081695,0.176538753939709,0.131012654549999,0.114425214860668,0.104741580542166,0.0869336801022207,0.0643315055637287,0.0482897904836599,0.0391089270344479,0.032828163919164,0.0308408360212987,0.022433242056658,0.0156881029757123,0.0139622249695045,0.0120597909791344,0.0106887904241815
