-0.00209762533197599,-0.00180109498937599,-0.00161623183497599,-0.00163216550247599,-0.00209857613677599,-0.00136348043027599,-0.00192994278957599,-0.00197995605697599,-0.00187156265347599,-0.00226227124947599,-0.00217769715567599,-0.00185612273957599,-0.00211565040557599,-0.00191076432947599,-0.00201327252457599,-0.00191055311607599
0.000263673808437737,0.00013764505794326,7.25412909639419e-05,4.91092375198786e-05,3.98622679471325e-05,3.30863592388437e-05,2.29338737648464e-05,1.69722219348366e-05,1.37295275278693e-05,1.28935802697817e-05,1.29021393523063e-05,1.05578176213365e-05,1.12526290364465e-05,9.87028522236046e-06,1.04057582786861e-05,1.03189137036663e-05
0.000268073840471084,0.000140889001104015,7.51534963083317e-05,5.17732017473513e-05,4.42662897489782e-05,3.49454381225893e-05,2.66585529358828e-05,2.08924479223925e-05,1.72322742937554e-05,1.80114514759873e-05,1.76445042541456e-05,1.40030092457076e-05,1.57286056750604e-05,1.35213055451583e-05,1.44590245368987e-05,1.3969126913014e-05
0.117803844195184,0.0854025404181804,0.0623744658385033,0.0517707857172094,0.0478705928247268,0.0425331442941466,0.0371492910660846,0.0328872007028533,0.0298678212819573,0.0305356100420526,0.0302229585110887,0.0269242077124285,0.0285349658317995,0.0264570585220281,0.0273590959128905,0.0268916144515987
